Neural Network Weights
==================================================

Layer 0:
Shape: (25, 401)
[[-0.26364919  0.03787248 -0.04758392 ...  0.02288834  0.09064867
   0.00456601]
 [ 0.22789059 -0.06356331 -0.06998157 ...  0.06414877  0.02523767
   0.00990978]
 [-0.20207522 -0.06247544 -0.01565448 ...  0.01540362  0.00287632
  -0.01367486]
 ...
 [-0.3377065   0.07030775 -0.00637043 ...  0.05933081  0.01711399
  -0.04759689]
 [ 0.03403935  0.0620395   0.10865559 ... -0.00109939 -0.03494422
  -0.05803612]
 [-0.50867136  0.04491862 -0.05129535 ...  0.04727709 -0.04857921
   0.0225239 ]]

Layer 1:
Shape: (15, 26)
[[ 8.70430776e-01  9.66433720e-01  1.52957538e+00  1.34094279e-01
   9.68632695e-01  4.68424246e-01  4.46067649e-01 -7.84476051e-01
   5.28975833e-01  7.05298902e-01  3.87425797e-01 -2.58816275e-02
   4.40163335e-01  1.19975405e-01  2.27661030e-01  5.54149366e-01
   8.43761574e-01 -7.38920846e-03  1.10316870e+00  1.27730617e+00
   2.27610890e+00  1.30214301e+00  1.44848784e-01  4.22491636e-01
  -3.49787420e-01  2.66475790e-01]
 [ 7.42420056e-01  5.28964406e-01  7.51407537e-02  5.76879591e-01
   5.68184237e-01  1.10167472e+00  6.51903627e-01  5.18021438e-01
   6.06369579e-01  7.14556962e-01  5.48018595e-01  1.70791618e-01
   2.67751857e-01  8.65575231e-01  2.34203606e-01  3.98468652e-01
   5.07062470e-01  1.38753374e-01  7.49585092e-01  1.09923747e+00
   5.09252556e-01  4.93823906e-01  3.78837606e-01  5.34185440e-01
  -2.03863130e-01  6.02695303e-01]
 [ 5.24683419e-01  3.45226576e-01 -9.12342288e-02  1.90754913e-01
   8.44150726e-02  3.18298336e-01  3.34026708e-01  2.51502080e-02
   3.17581587e-01  1.02877307e+00  3.06287310e-01  4.88487015e-02
   3.56050211e-01 -2.17381693e-01  1.68772725e-01  6.48341926e-02
   5.34471870e-01  2.52458169e-01  2.24806373e-01  5.45055226e-01
   5.48747039e-01  5.33804611e-01  2.62187039e-01  6.37145870e-01
   1.64657290e-01  5.36645746e-01]
 [ 4.20014842e-01 -8.02327740e-02  2.01103331e-01  7.04342685e-01
  -4.18023316e-01  9.62600813e-01  2.63515912e-01  7.65145050e-01
   1.30729823e-01  6.17508397e-01  1.78844646e+00  3.63429450e-01
   2.02553034e-01  7.35281764e-01 -4.32336530e-01 -1.94311400e-01
   8.42742755e-01 -2.64337388e-01 -2.44820226e-01  2.87186584e-01
  -5.75254359e-01 -5.29512463e-01 -1.61675878e-02  2.29949577e-01
  -1.47588602e-01  5.04645887e-01]
 [-1.55643609e-01 -1.69457875e-01 -1.99727746e+00  9.33823080e-02
   3.57283976e-01  2.11900343e+00  7.78055124e-01 -4.35979158e-01
   1.28207379e-01  7.95701374e-01  2.72148630e-01 -3.12433019e+00
   2.38713385e-01 -6.95520019e-01 -2.12675713e-01 -4.33619191e-01
   3.12043968e-01 -8.40532199e-01 -1.11785773e+00  9.67362081e-01
   1.19018877e+00  5.90959885e-01 -3.08885862e-01  6.92904323e-01
  -6.41424396e-01  5.61694427e-01]
 [ 8.49305879e-01  3.82959074e-01 -1.04693815e-01  3.75087667e-01
   4.17600386e-01  5.64383777e-01  3.62553702e-01  6.78496249e-02
   7.00069432e-01  4.73244867e-01  3.96439975e-01  1.47740304e-01
  -2.36408198e-01  6.76930322e-01  2.19270113e-01  2.21684308e-01
   7.44814730e-01  2.53320021e-02 -4.78427042e-02  1.01554413e+00
   3.18203240e-01  3.15971451e-01  1.31999121e-01  8.19586718e-01
  -2.26726448e-02  4.61689454e-01]
 [ 1.48092119e+00  1.00298539e+00  1.69438469e+00  3.06684278e-02
   5.65745139e-01 -7.67093734e-03 -7.06393328e-01  3.90335686e-01
   7.62048035e-01 -3.52791956e-01  4.55008102e-01  1.81538011e+00
   4.57978859e-02  1.01701350e+00  8.79699876e-01  1.87302770e+00
   5.58883885e-01  1.34466905e+00  1.18757495e+00  4.46258799e-01
  -3.07726707e-01  3.00943843e-01  2.20325492e-01 -3.40580737e-01
   1.27512417e+00 -3.89437492e-01]
 [ 1.94833406e+00  1.04655918e+00  5.55697125e-01  9.44024930e-01
   1.14681790e+00  7.71319804e-01  5.65308938e-01  8.96076591e-02
   9.82362336e-01  8.29154032e-01  7.90379813e-01  6.37995252e-01
  -3.82588534e-02  1.24721143e+00  5.53079056e-01  8.82989285e-01
   1.07750465e+00  3.79301582e-01  4.30094515e-01  1.02829088e+00
   5.78794260e-01  7.93351436e-01  4.43173700e-01  1.03203946e+00
   8.11182807e-01  8.70288849e-01]
 [-3.93675988e-01  7.34043817e-01 -2.22122308e+00  5.86469367e-01
   3.96955501e-01  5.86711628e-01  1.62376616e+00 -2.18553409e+00
   2.65775741e-01  1.14928471e+00  4.31420248e-01 -1.11005453e+00
  -6.04249533e-01 -6.05887542e-01 -1.59420057e+00 -1.45588059e+00
   6.30646140e-01 -9.70705960e-01 -9.62119479e-01  7.72902414e-01
   8.60315576e-01  7.85751328e-01 -9.87157908e-01  6.67630993e-01
  -1.01220839e+00  6.77155354e-01]
 [ 1.24753151e+00  1.34318133e+00  2.07546289e-01  7.57144802e-01
   5.55196838e-01  8.68373569e-01  6.93523093e-01  6.02367938e-02
   6.78822615e-01  6.89122307e-01  7.11554811e-01  6.82899964e-02
  -1.38375574e-01  9.31517330e-01  6.19735363e-02  6.04296641e-01
   1.03960208e+00  3.35077148e-01  7.45109648e-01  7.85247879e-01
   5.88855214e-01  5.70110183e-01  5.09658609e-02  6.66004722e-01
   1.74686605e-01  7.58882798e-01]
 [-8.57886839e-01  7.21043039e-01 -1.72923121e+00  6.09808220e-01
   2.94881793e-01  6.35317356e-01  1.85969303e+00 -1.60229554e+00
   2.59150381e-01  8.44822504e-01  7.35425327e-01 -2.55889968e+00
  -1.58722274e+00 -1.41822617e+00 -1.79592269e+00 -1.41632901e+00
   7.20001677e-01 -2.99482298e+00 -2.07424874e+00  1.17713224e+00
   1.27342699e+00  2.11806580e+00 -7.42601215e-01  9.36255891e-01
  -1.61664731e+00  7.29265370e-01]
 [ 5.14828826e-01  1.27043497e-01  2.34867530e-01  3.47850451e-01
  -2.69911181e-01  1.16857403e+00  8.70640414e-01  1.19033580e+00
   4.87343915e-01  8.29656680e-01  7.08326433e-01  9.22371368e-02
   5.12723371e-01  3.66638706e-01  3.95758656e-01  5.76331530e-01
   5.13095326e-01  7.60932860e-03  1.47055613e-01  8.07642825e-01
   9.87232228e-02 -3.50269245e-01  2.04483386e-01  5.34624009e-01
  -1.94825267e-02  4.58217086e-01]
 [-1.32772259e-01 -1.17187376e-03  3.83964316e+00 -9.40155213e-01
  -1.64095765e-01 -1.06512166e+00 -2.62573680e+00  1.18225850e+00
  -1.04767221e-01 -1.27931274e+00 -7.68713487e-01  1.75431659e+00
   3.56882589e-03  7.09060587e-01  3.46877316e-01  9.16383191e-01
  -3.65119947e-01  7.21902650e-01  9.83782554e-01 -3.76364864e-01
  -1.61179586e+00 -5.90727063e-01  2.29912550e-01 -1.67581938e+00
   5.68641544e-01 -5.24645431e-01]
 [ 3.83090073e-01  1.33356932e-01  8.36693142e-01  5.02540073e-01
  -4.59762505e-01  1.81845623e+00 -2.26319439e-02  7.46441587e-01
   6.42596061e-01  8.83964938e-01  1.64434992e+00  8.12096598e-01
  -4.38227181e-01  1.62848929e+00 -2.77012474e-01  2.72684791e-01
   9.53930044e-01 -3.35368873e-01  1.26703742e-01  7.69132728e-01
  -8.89915081e-01 -1.43971045e+00  4.77389395e-01  9.04492452e-02
  -4.93520394e-01  6.02393887e-01]
 [ 6.23143138e-01  6.53970581e-01  2.48547477e-01  3.86484921e-01
   6.45980031e-01  4.39314355e-01  4.09969281e-01  3.53666888e-01
   3.79973719e-01  4.35357201e-01  3.89448000e-01 -5.96909580e-02
   1.06268644e-01  3.00721281e-01  1.98154218e-01  4.02668105e-01
   6.88259536e-01  2.43469085e-01  5.03105383e-01  3.82875174e-01
   5.43988171e-01  3.14797084e-01  2.78834480e-01  6.84244127e-01
  -7.43527768e-03  4.31809250e-01]]

Layer 2:
Shape: (10, 16)
[[ 3.97103133  1.3393182   1.52642042  1.95515631  2.35018724 -0.159863
   1.6432595   4.12521364  3.90247963 -1.9645284   3.58345718 -3.24702137
   3.21129583  6.66059322  2.55938397  2.03925899]
 [-1.11643754 -1.08130797 -2.46133416 -1.40195929 -0.92247442 -0.83751722
  -1.21676579 -0.36808261 -0.92185739 -0.88574109 -0.45296811 -0.45420222
  -1.07340553 -0.46460259 -0.22402496 -0.76275948]
 [-1.28414047 -1.5232949  -1.14903934 -1.31909181 -1.52758014 -1.74153795
  -1.17979235 -0.51119707 -1.27498357 -0.71448754 -0.56715666 -1.32194242
  -1.38730687 -0.27731993 -0.41446861 -0.91761631]
 [-1.3891257  -1.29153354 -1.94047846 -1.11986839 -0.76122323 -1.23880395
  -0.75288375 -0.50128563 -0.93536881 -1.05307843 -1.17057312 -0.46782787
  -0.91675359 -1.02355825 -0.28177832 -0.77016348]
 [-1.28385239 -0.97320211 -1.04492521 -0.9536977  -0.66544771 -0.97132393
  -0.81447812 -0.34278169 -0.86214393 -0.86747321 -1.19760903 -0.90252907
  -1.66285091 -0.23631343 -0.73896107 -2.33040253]
 [-1.91029315 -0.85376567 -1.71453508 -1.0589654  -0.66706089 -1.62460959
  -0.99114696 -0.38952786 -1.00030828 -1.41870826 -0.5253215  -0.72150488
  -1.36643986 -0.45372137 -0.20025102 -1.33181186]
 [-1.86043818 -2.18630007 -0.86621651 -1.54706502 -0.7119288  -1.19195728
  -1.14323811 -0.3891358  -0.92263083 -0.697059   -2.19224355 -0.45764147
  -1.26319666 -0.20043206 -0.45345026 -1.36361832]
 [-1.32463453 -1.2727024  -0.96961914 -1.60366803 -0.67427865 -1.45786457
  -1.18009216 -0.33598175 -0.8143882  -1.47885086 -0.88337663 -0.44793153
  -1.34054488 -0.43526743 -0.22748713 -1.44645254]
 [-1.06029403 -0.92510428 -1.07541578 -1.0604213  -1.68713375 -0.80890295
  -0.7477813  -0.80354916 -1.55482068 -0.60833766 -0.42319132 -0.46841373
  -0.87836859 -0.36429946 -0.92579987 -1.07804101]
 [ 1.97264012  3.89456922  2.80633534  3.87985652  2.05712685  6.88130301
   3.40209124 -0.10648476  2.86555952  5.18896191 -0.19667746  5.36584073
   3.20240232 -3.70789949 -0.14686162  2.85009189]]

