Neural Network Weights
==================================================

Layer 0:
Shape: (25, 401)
[[-0.00314058  0.05035018  0.09712835 ...  0.03709434 -0.0607256
  -0.01085944]
 [-0.25394457 -0.08603632 -0.02463418 ... -0.03157748  0.09798864
   0.02363145]
 [ 0.0170964   0.01614298 -0.00429136 ... -0.03179663 -0.0316596
  -0.0141069 ]
 ...
 [ 0.25756819  0.0334072  -0.00772259 ... -0.04624207 -0.01791692
   0.02212977]
 [-0.18059009  0.05530316 -0.00965288 ...  0.01191533 -0.03696809
   0.05004477]
 [-0.142745   -0.0532329  -0.09460649 ...  0.04922099 -0.07261945
  -0.00839245]]

Layer 1:
Shape: (15, 26)
[[ 2.49526032e-01  4.29848046e-01  3.26978245e-01  3.54025405e-01
   1.59664129e-01  3.64055445e-01  8.07539042e-03  3.25356034e-01
  -8.72135281e-03 -3.10370420e-01  1.32806357e-01  2.18143101e-01
   3.50960377e-01  5.70299008e-01 -2.05966778e-01  6.03056054e-03
   1.26070573e-01  2.37147359e-01 -1.14511895e-02  4.09789604e-01
   2.66015962e-01  4.85334089e-01  9.17334792e-02  1.44366681e-01
   8.13752109e-01  3.09619844e-01]
 [ 5.97025390e-01  1.79684482e-01  1.28848964e-01  2.71877170e-01
   5.40147325e-01  4.54753541e-01  2.98308057e-01  1.32827578e+00
   1.62470579e-01 -1.78021472e-01 -1.44746541e-01  1.08183101e-01
   2.69485232e-01  2.33468666e-01 -1.01237410e-01  4.27294508e-02
   4.84593537e-01  4.27855943e-01 -4.13762698e-01  3.37046108e-01
   1.80477095e-01  2.45303728e-01  4.07657950e-01 -1.58043916e-03
   4.94251403e-01  3.11637511e-01]
 [ 3.27135962e-01  3.47052652e-01  6.33049692e-01  4.63598067e-01
   1.19806075e+00  4.58575789e-01 -8.49921776e-01  1.55462776e+00
   5.81581397e-01 -1.68995186e-01 -7.92044748e-03 -1.35694215e+00
   4.71845966e-01  6.30352135e-01 -3.52334962e-01 -5.08146028e-01
  -8.72593556e-01  1.14560236e+00 -1.07707805e+00  1.08398705e-01
   5.88910950e-01  4.62926916e-01  1.56770428e+00 -8.93049578e-03
   8.82327297e-01  1.11785574e+00]
 [ 4.90083177e-01  2.11052598e-01  1.51975572e-01  5.35159528e-01
   3.77157809e-01  5.17467094e-01 -7.44174660e-02  2.92745191e-01
   5.40225716e-01  2.15943524e-02  1.42207611e-01 -1.25842451e-01
   3.26347990e-01  1.15639419e-01  4.87430882e-02  4.06750517e-01
   2.00520674e-01  3.59652386e-01 -1.80664506e-01  1.63228280e-01
   3.87155028e-01  3.56104693e-01  1.33694908e+00 -4.28412399e-02
   3.58790512e-01  4.94135628e-01]
 [ 4.41093997e-01  6.36605921e-01  2.09845442e-01  2.06288511e-01
   2.01630921e-01  3.65839111e-01  1.77306090e-02  2.32689919e-01
   4.63280794e-01 -2.79203099e-01  8.76414486e-02  5.37877580e-02
   4.14365212e-01  1.33048808e-01  7.45522653e-02  3.09667157e-03
   5.93810397e-02  2.85493192e-01  6.03627113e-02  5.93024758e-01
   4.69776730e-01  3.94145360e-01  9.33488133e-01  1.23603655e-01
   1.99498144e-01  1.22879591e-01]
 [ 8.12396872e-01  1.19315742e-01  1.61689947e-01  3.14863354e-01
   4.24168846e-01  1.49250224e-01  2.58243220e-02  2.64816353e-01
   1.08719253e-01 -9.15927156e-02  1.38621724e-01  2.12382824e-03
   4.94148776e-01  2.25454001e-01 -1.73579083e-01  2.46576852e-01
   1.25672113e-01  4.03425947e-01 -7.93775978e-02  3.47799512e-01
   2.59928413e-01  5.69957192e-01  2.71202323e-01  1.03671190e-01
   2.25140149e-01  4.92965008e-01]
 [ 7.10989013e-01  3.81575334e-01  2.25689212e-02  2.37990217e-01
   4.74224703e-01  2.26044669e-01 -1.27677571e-02  1.23779752e+00
   2.98010674e-01 -9.34376826e-02  7.39533966e-02 -7.22546310e-03
   1.26708960e-01  5.80756892e-01 -2.88628661e-02  1.71387132e-02
   4.43626481e-02  1.26887430e+00  1.60294115e-01  8.05978271e-01
   2.66273153e-01  5.62117755e-01  4.86504350e-01 -1.64808778e-01
   1.22233052e-01  2.73930788e-01]
 [ 2.75508248e-01  1.97494793e-01  4.47934654e-01  5.63144392e-01
   6.68505021e-01  4.34315199e-01 -2.08625255e-01  4.34028381e-01
   3.25457054e-01  2.64870847e-03 -3.00091601e-01 -6.17500435e-01
   2.49456486e-01  2.16437962e-01 -4.96465257e-01  2.51528053e-01
  -4.86831212e-01  6.75704841e-01 -1.78598944e-01  2.40466403e-01
   4.13663094e-01  1.48842185e-01  5.06765608e-01 -3.47953860e-02
   2.49504505e-01  3.49426768e-01]
 [ 6.46300118e-01  2.24625132e-01  5.88186327e-02  6.00280058e-01
   2.93170715e-01  8.14824295e-01 -1.34091229e-01  3.90815554e-01
   5.18226137e-01  1.09766520e-01  4.60923977e-02 -1.15171245e-01
   2.13408690e-01  2.86526005e-01  1.60118429e-01  2.12853700e-01
   2.50234558e-01  9.57876441e-01  2.70054649e-01  2.88587608e-01
   2.05987596e-01  1.25098477e-01  5.10157618e-01  1.65574058e-01
   5.08657552e-02  3.97858775e-01]
 [ 1.94495954e-01  4.23145711e-02 -2.42476690e-02 -6.60187778e-02
  -1.10645973e+00  6.01802607e-01  1.19981682e+00 -4.48494042e-01
   5.69511242e-01  3.05249839e-01  3.39235849e-01  2.24634866e+00
   1.53159762e-01 -1.88309659e-01  5.23013148e-01  3.29614455e-01
   6.17084223e-01 -5.98981115e-01  8.75578298e-01  1.08318692e-01
  -7.25110390e-01 -1.56639008e-01 -6.41819171e-01  6.06809026e-01
  -4.46405749e-01 -6.05372318e-01]
 [ 1.23803772e-01 -2.38173805e-01 -4.27765952e-01 -3.59357151e-02
  -1.09247319e+00  1.65735680e-01  8.88169336e-01 -3.80158903e-01
   2.82311666e-01  3.51615624e-01  9.42917107e-01  4.68888726e-01
  -3.08677969e-01 -4.43326485e-02  8.91728181e-01  6.37653814e-01
   5.98114650e-01 -2.53941543e-01  4.85000538e-01 -3.09455186e-02
  -4.94031253e-01 -3.00406900e-01 -3.72287726e-01  8.58827564e-01
  -6.10008222e-01 -1.77474670e-01]
 [ 5.55411336e-01  5.42178414e-01  4.01993910e-01  1.97143700e-01
   5.79250581e-01  8.16756992e-01  1.48693819e+00  1.81770237e-01
   2.29012862e-01  2.80589461e-01  1.28260783e-01  3.90674582e-01
   1.79860324e-01  1.57074768e-02  5.95048369e-01  2.13701726e-01
   3.51716526e-01  1.81528898e-01  2.33815890e-01  5.45598837e-01
   1.90144906e-01  9.74368777e-03  4.05984059e-01  8.21562358e-01
   2.58181599e-02  1.39930802e-01]
 [-6.16351127e-02 -5.82528063e-01 -1.01671179e+00 -1.21033024e-01
  -1.05471611e+00  5.25948034e-02  4.27134458e-01 -3.32325690e-01
  -1.01645486e-01  1.08093793e-01  3.46792410e-01  8.47245396e-01
  -6.30912955e-01 -2.48065018e-01  7.17622769e-01  4.51703069e-01
   1.55842018e+00 -1.76173920e+00  1.26148792e+00  4.02336888e-01
  -3.74697654e-01 -2.40669345e-01 -1.28277278e+00 -5.16750852e-02
  -4.98531952e-01 -4.12860653e-01]
 [ 4.70354367e-01 -3.67706521e-01 -3.95890509e-01 -3.88459736e-02
  -6.56419430e-01  3.02868138e-01  5.45609043e-01 -3.47884124e-01
   3.93565643e-01  1.87175409e-01  6.01398823e-01  6.63333999e-01
   1.47595944e-01 -2.76324393e-01  1.37852861e+00  5.12488811e-01
   6.91787890e-01 -4.84277222e-01  6.46495841e-01  4.38756615e-01
  -4.25275119e-01 -2.10984294e-01 -1.22567415e+00  4.38659376e-01
  -8.83263926e-02 -5.20367894e-01]
 [ 1.43925089e-01 -4.54354996e-01 -8.84165390e-01 -5.00277374e-01
  -1.29852592e+00  2.25099067e-01  5.75170072e-01 -4.91191300e-01
   1.72901509e-01  3.39404010e-01  6.17080589e-01  1.19968640e+00
  -6.78569215e-02 -4.10800002e-01  8.77985808e-01  8.13199746e-01
   7.63325889e-01 -6.13431257e-01  7.17127943e-01 -4.31531197e-02
  -6.65438214e-01 -1.90765088e-01 -1.06418047e+00  3.60520767e-01
  -5.15161876e-02 -1.62678861e-01]]

Layer 2:
Shape: (10, 16)
[[ 3.24314307  1.88504496  1.61165266 -0.31866312  2.20318698  2.09552516
   1.9520376   2.30327872  1.23281519  3.13085554  6.35262622  3.85297172
   5.01988875  4.33189576  3.28557245  3.68725622]
 [-0.8577657  -0.42844405 -1.74692954 -0.63211327 -0.8397586  -0.77802148
  -0.71298046 -1.69350661 -0.66649643 -0.65859493 -0.70436428 -0.38310171
  -0.94940686 -0.05528388 -0.36396319 -1.0224317 ]
 [-0.75929757 -0.4568508  -0.4387223  -1.12603306 -0.69094773 -0.55859865
  -0.51631632 -2.01807787 -1.03497137 -0.84663809 -0.57051649 -0.32732496
  -1.63733105 -0.38599594 -0.30446916 -0.32966266]
 [-1.3138637  -0.41816924 -0.70562733 -0.50768436 -0.87764714 -1.18992239
  -1.08680064 -0.73396727 -0.48340255 -0.61493579 -0.68335868 -0.31865113
  -1.05801275 -0.76181797 -1.04669108 -0.25497498]
 [-0.8099816  -0.41865092 -0.41983526 -0.40986723 -2.2785407  -0.59362853
  -0.50136673 -0.6488369  -1.19431219 -0.92656668 -0.49525778 -0.75706997
  -0.92458185 -0.63811803 -0.28731294 -1.382839  ]
 [-1.42580876 -0.45072962 -0.97523127 -0.437904   -1.07532409 -0.54075287
  -0.52585659 -0.89297175 -0.75765755 -0.60796518 -0.58495356 -0.35140658
  -0.85865968 -0.76928674 -0.31501411 -1.05282132]
 [-1.07361863 -1.05233158 -0.92673911 -0.67236299 -0.68295755 -0.67470194
  -0.48330828 -0.69251658 -0.46864811 -2.05020246 -0.53610935 -0.42341203
  -0.98298281 -0.27084319 -1.0346539  -0.68976048]
 [-0.7807704  -1.46871694 -0.40975076 -0.83545332 -1.30866014 -0.55733579
  -0.84626879 -0.75744088 -0.56995336 -0.88754159 -1.06836283 -0.27307706
  -0.92674071 -0.45099591 -0.49465592 -0.58809333]
 [-2.97761606 -0.48180314 -0.83076588 -0.45045624 -0.62090975 -1.21280174
  -0.50654384 -1.34109146 -0.66380104 -0.62757682 -0.51199908 -0.7567584
  -1.08766098 -0.62253219 -0.56133408 -0.30116798]
 [ 2.46251463  2.92375474  2.61887959  8.11265807  3.58761888  3.29640091
   3.32297924  4.12016864  3.43680187  2.66650953  1.39078786 -0.50116729
   3.40063267 -2.1066423  -0.47873406 -2.55892727]]

