Neural Network Weights
==================================================

Layer 0:
Shape: (25, 401)
[[ 2.20586610e-01 -5.59782394e-03 -7.17943046e-03 ...  6.60770029e-04
   1.08754444e-02  5.86497823e-03]
 [-2.58970458e-01  7.94770413e-03  4.43005515e-03 ...  2.63636200e-03
  -1.56761176e-04  1.14949859e-02]
 [-7.52022066e-02  8.04287771e-03 -6.40943893e-03 ...  1.29528725e-02
  -8.27976145e-03  4.53358720e-03]
 ...
 [-1.44418395e-01 -1.25705458e-03 -1.01596430e-02 ...  9.36443471e-03
  -1.61773009e-03 -1.13587652e-02]
 [ 5.97446807e-02 -5.50376034e-03 -6.73929187e-03 ... -4.49565507e-04
  -2.80267827e-03 -5.38496295e-03]
 [-9.34064276e-02 -1.38583056e-02 -1.14854478e-02 ...  1.18701421e-02
  -5.71423794e-03  6.93115330e-03]]

Layer 1:
Shape: (15, 26)
[[-7.13993922e-02  5.84028778e-01 -5.81352162e-01  1.39788383e-01
   4.85298924e-01  4.51771481e-01 -1.36953388e-01 -6.91043593e-01
   3.67709860e-01 -1.15783035e+00  9.17382500e-01  2.65446916e-01
   2.20003389e-01 -4.13177737e-01 -4.63757406e-01 -1.25908224e+00
   5.55516341e-01  4.62999076e-01 -1.36507555e+00 -1.40571965e-01
  -1.46697169e-01  6.48596075e-01  6.14375486e-01  7.64346103e-02
  -5.56897451e-02  1.06688269e+00]
 [ 1.83090610e-01 -7.85730636e-01  8.21442664e-01  9.04925674e-01
   1.22666885e+00 -1.31399814e+00  4.98668334e-01  6.41412564e-01
   4.60829239e-01  2.34588539e-01 -8.41726485e-01  8.96945296e-02
   6.61441510e-02 -9.78274339e-03 -7.30974185e-01  1.45513854e+00
  -6.53288445e-01  4.22010334e-01  4.23391611e-01 -1.33265294e-01
  -2.98431002e-02  5.78116990e-01 -2.53004663e+00  1.67891536e-01
  -8.28758730e-01 -2.92064096e-01]
 [-1.25558654e-01  1.17577591e+00 -6.22128862e-01 -6.47615868e-01
   4.86542421e-01  7.42070886e-01 -1.23526202e+00 -5.57939551e-02
   1.06243275e-01 -8.99137384e-01  9.30917909e-01  4.18220207e-03
   5.91799812e-01 -7.90459854e-02 -7.36703626e-02 -1.93189874e+00
   5.41548182e-01  6.97924809e-01 -1.51884863e+00  1.41171948e-01
   5.12259756e-01  3.27555460e-01  7.87388564e-01 -1.11171481e-01
  -6.09496008e-01  9.69044726e-01]
 [ 2.89957671e-01  1.18787924e+00  8.23996679e-02 -2.03789682e+00
  -8.59823879e-01  8.15183475e-02 -6.08602980e-01  6.95172909e-01
  -6.04134795e-01  4.82484768e-01  1.55470920e-01  2.62279035e-02
  -2.42150550e-01 -3.47533160e-01  2.93490650e-01 -1.89271890e-01
   7.77929420e-01 -3.14135164e-01  4.28209445e-01  2.73057035e-01
   1.06475165e+00  1.94498101e-01  1.79891782e+00  2.63012407e-01
  -1.32114991e+00 -2.46004187e-01]
 [-1.32413762e-01 -3.53379744e-01  1.52082607e-01  3.96755652e-01
  -5.81837832e-01 -7.09811450e-02  3.24532019e-01 -5.05120247e-01
  -5.96964803e-01 -1.06826183e+00  2.71907534e+00  1.27566773e-02
   5.07119101e-01 -7.76047063e-01 -4.34592400e-01 -1.19986235e+00
   9.42889767e-01  6.31661330e-02 -4.38366325e-01  3.76632106e-01
   3.23873355e-01 -8.78882387e-01  1.04519464e+00 -1.08656325e+00
  -5.08129212e-01  5.52477084e-01]
 [-3.95402391e-01 -4.71495804e-02 -8.51758709e-01  7.72711589e-01
   5.82160813e-01  1.50500263e+00 -3.51862152e-01 -5.76581249e-01
   2.76427884e-01  3.56004370e-01  3.27709815e-01 -5.54899308e-01
   1.11282399e+00  6.61181909e-01  1.07980227e+00 -1.25789817e+00
  -3.95826672e-01  2.34772884e-01 -3.60524890e-01  9.78545079e-01
   8.43347264e-01 -6.15082599e-01 -1.95337320e-01 -1.65862212e+00
   4.52489864e-01 -6.38950653e-02]
 [ 2.89603076e-02 -1.30064586e+00  1.53146155e+00 -2.79577456e-01
   3.12213985e-01 -2.11214218e+00  5.18247475e-01  1.16486047e+00
   1.98397424e-01 -1.42647105e+00  7.72920479e-01  1.28323031e+00
  -5.69757235e-01 -1.70343785e+00 -1.92367154e+00  7.30607329e-01
   8.59203177e-01  8.58667000e-01 -5.70346229e-01 -1.26384243e+00
  -4.01133631e-01 -5.48964347e-01 -1.44175978e+00  8.23745124e-01
  -1.46959536e+00  8.78561961e-01]
 [-1.46805670e-03  1.78363014e+00 -1.44808357e+00 -2.99275785e-01
   5.17022566e-01  5.28079163e-01  8.76660997e-01 -9.52257838e-01
   8.75598886e-02  8.49181280e-01 -1.21290810e+00 -9.12455534e-01
  -9.39257432e-03  6.34526402e-01  5.84310829e-01  4.19966866e-01
  -8.94713596e-01 -4.54091565e-01 -3.02875275e-01  5.20314234e-01
   3.28158127e-01  1.95705356e+00 -5.67360440e-02  3.00708084e-02
  -8.10196200e-02 -3.45202634e-01]
 [ 6.48490466e-02  9.46444562e-01 -7.76764869e-01  7.05442910e-02
   6.63173301e-03  7.57966748e-01  3.85549931e-01 -1.14151657e+00
  -1.50891826e-01  3.07984628e-02 -5.94341784e-01 -2.83235753e-01
  -2.55593457e-01  7.72053708e-02 -1.05911570e+00  5.87741921e-01
  -2.96319539e-01 -5.73820304e-01  5.95631612e-01 -1.16889275e+00
  -2.74522550e-01  2.72179284e+00 -7.38339818e-01  8.70428095e-01
  -4.22314112e-01 -7.43038104e-01]
 [-1.49595708e-01 -1.66300317e+00  3.08086638e-01  9.20534252e-01
   2.23204687e-01 -7.12324742e-01  5.93583197e-01  3.23468530e-01
   7.36439770e-01  2.21809262e-01 -1.20228273e+00  2.34096229e-01
  -8.69974126e-01  6.59021621e-02  8.03946048e-02  1.08217019e+00
  -1.15833976e+00 -3.52974160e-01 -1.25701317e-01 -1.47554831e-01
  -1.49238122e+00 -9.87583001e-01 -7.36698203e-01  1.98871459e-01
   1.50364539e+00 -1.71802264e-01]
 [-1.47880859e-01 -9.89696464e-01 -9.33482284e-01  1.02837886e+00
   3.23768124e-01  2.56859436e-02  1.68217951e+00 -1.51377588e+00
   7.19391476e-01  1.12322868e-01  6.67822411e-01  1.79104628e-01
   4.62585933e-01 -5.97346133e-01  5.13873844e-01  2.71857417e-01
   3.58070765e-02 -6.12726321e-01 -2.50122107e-01  9.59210609e-01
  -1.99422046e-01  2.32892916e-01  1.06409321e-01 -1.25629306e+00
   1.26074543e-01 -7.98609475e-02]
 [-1.66591272e-01 -4.57799468e-01 -1.04823934e+00  7.71490171e-01
   1.60234328e+00  2.49286437e-01  2.25912503e-01 -4.02271412e-01
   1.41732288e+00 -3.03681681e-01 -6.82243612e-01  3.38009084e-01
   4.01253230e-01 -5.23106554e-02  2.97195896e-01 -3.48307962e-01
  -4.80525268e-01  4.47300276e-01 -1.00807440e+00  5.89611455e-01
  -1.69962592e-01  3.74628994e-01 -5.77911879e-01 -6.29496436e-01
   1.96626125e-01  5.95339046e-01]
 [ 1.81768796e-01  3.00679271e-01  8.68651257e-01 -1.02002602e+00
  -1.60421511e+00 -2.77825845e-01 -2.05366895e-01  4.59764835e-01
  -1.06070711e+00  4.28202433e-01  5.64315360e-01 -9.48155186e-02
  -3.34363051e-01 -2.00998274e-02  2.84782714e-02  2.67368026e-01
   4.29441022e-01 -5.86246748e-01  1.12698849e+00 -2.63916482e-01
   4.06331968e-01 -4.62360358e-01  8.24184572e-01  3.50926995e-01
  -3.53387008e-01 -5.92852949e-01]
 [ 1.14931327e-01  1.04220101e+00  8.50865349e-01 -7.51915327e-01
  -2.54548387e-01  3.60355597e-01 -2.17054280e+00  1.40566201e+00
  -5.97976793e-01  2.19723714e-02 -7.96093113e-01 -1.27589078e-01
  -2.48047414e-01  9.13925049e-01 -4.21727472e-01 -7.27604973e-01
  -1.60386835e-01  5.17994573e-01  5.34332485e-01 -1.20214020e+00
   3.50527881e-01 -4.52957956e-01 -2.04373013e-01  1.37272911e+00
   1.47646642e-01 -1.00923303e-01]
 [-4.11166278e-02  5.51349042e-01 -1.17001197e-01  9.52330115e-01
   2.57988242e-01  8.20798108e-01 -6.56821173e-01 -5.47879039e-01
   1.07192758e-02 -3.62060756e-02 -1.05727627e+00 -1.00627213e+00
  -3.14591213e-01  1.29385985e+00 -2.85285029e-01  2.39063185e-01
  -1.02225062e+00 -3.22829691e-01  3.29056766e-01 -1.22626075e+00
  -2.17535112e+00  1.09418870e+00 -8.10316987e-01  1.14062148e+00
   1.67035248e+00 -5.73742361e-01]]

Layer 2:
Shape: (10, 16)
[[-0.5477745   0.3138488   0.46626493 -1.97012823 -1.75645053 -1.30102066
  -2.27692197  0.5143325   1.69226884  2.94009859  2.1811566   2.03191825
   0.61448931 -1.23970114 -2.6169551   2.4704932 ]
 [-0.05404773 -2.64397068  0.74761368 -1.97931166  1.63926698 -1.29483266
  -1.44441005 -2.30533249  2.29714808  2.28177265 -0.88654643 -1.80830174
  -1.97491253  2.23593586  1.55868245  2.25349746]
 [ 0.43935603 -2.95260804  1.48112556 -2.54123153  2.52905143 -0.93939431
  -1.8097541   2.88442551 -2.66740046  0.18785114 -0.39483554 -1.25444966
  -2.74272809  3.22306622  1.69322568 -2.14224047]
 [ 0.17737259 -0.16338873  1.15154176 -0.24011877 -2.15304817 -1.27323789
  -0.51826946  1.87814429 -2.14376598 -1.59605565  3.07769506 -1.66908386
   0.98729918 -1.09553057  2.24461121  2.14773774]
 [ 0.36847864  1.57476568 -4.77689567  2.12025725  0.52932421  3.10206725
   2.74740107 -3.33107012 -0.55963441 -1.75606581 -1.52776432  2.29937659
   1.63450501 -0.55489206 -2.01657565 -1.5490882 ]
 [-0.38660528  1.19370695 -0.33810947  2.00983837 -1.99494375 -1.02546873
   1.68552435 -3.27200705  1.69020509  1.7374309  -1.27862114 -0.61727382
   1.00516896 -1.46860833  1.43792416  2.41234927]
 [ 0.14640458  0.9957376  -3.38083992  1.97050461  2.19966869  2.8790372
  -1.5131671   1.36285483 -1.73524527 -1.53389464 -1.30778081 -1.61795876
  -2.45615593  2.33194968  1.49622002 -1.39612439]
 [ 0.44570683 -1.03520534  1.20727831 -1.96933094 -1.36417825 -1.00184688
   2.63746306 -2.21212565  1.49314941 -2.03272061  2.47415763  2.52974027
   1.41184645 -0.99771263 -2.24367328 -1.28968951]
 [-0.22203955  0.92801565  1.35174772  2.45459041  2.04143111 -2.12514334
  -1.81276859  1.81534344  0.92646021  0.40595686 -2.13439727 -1.66753804
   0.75475252 -0.87691703  0.78599652 -1.7411996 ]
 [-0.316805    1.06577321  2.123891    0.90269207 -1.99109596  2.91865078
   1.29611821  2.44699849 -1.58043309 -0.87461307 -1.14140443  1.77791108
   0.81058611 -1.34694321 -2.24274443 -1.43927201]]

