Neural Network Weights
==================================================

Layer 0:
Shape: (25, 401)
[[-0.14183962 -0.03210122 -0.03168502 ... -0.03944161 -0.08323752
  -0.02418281]
 [ 0.37865802 -0.01848706 -0.00124564 ... -0.02168341 -0.04393235
   0.03104581]
 [-0.3184601   0.03128743 -0.02906918 ...  0.03497158 -0.04669399
  -0.01918089]
 ...
 [ 0.17215951  0.04631768  0.01250241 ... -0.00664079 -0.02281172
  -0.01224975]
 [-0.10966753 -0.04808273  0.05128759 ...  0.03684715  0.00255121
   0.00105694]
 [-0.0845754   0.00727447 -0.01221582 ... -0.01584681  0.04540332
  -0.00471918]]

Layer 1:
Shape: (15, 26)
[[ 0.17361266  0.61031574 -0.83477051 -0.13054875 -0.23894994 -1.00048932
  -0.36443834  0.01004805 -0.08564675 -0.40882457  1.34371148 -0.9208496
  -1.560675    0.2762848  -0.04492309  0.41368752  0.60168486  0.94060454
  -0.63251978  0.93850225 -0.93123557  0.41894894 -0.11552107  0.41866396
   0.70246601 -1.08797942]
 [ 0.35844504 -0.18752736  0.27617967  0.58465113 -1.4207323   0.49031219
  -0.02740322 -0.25501382 -0.06842876  1.18125143  0.40508609 -0.95060287
   0.56351709 -0.44223854 -1.07916687  0.02016584 -0.73578121 -0.146634
   0.72907739 -0.6503265   0.95253995 -0.22404671 -0.69221699 -0.09064188
  -0.34080091 -1.24971001]
 [-0.25131294 -1.00285843  2.30478999 -2.01109089  0.05726768  0.61434362
   1.51356218 -0.68247567  2.84101439 -0.03042928 -0.46575413  2.21628267
   1.71958635  1.01048988 -1.21607319 -1.23012218 -0.1257378  -0.40130218
  -1.47110715  0.32463903  0.92294426 -2.20320423 -0.87326347 -0.200393
  -0.99310988 -0.79665747]
 [-0.66539203  0.33707695  1.8785313  -2.14572977 -0.73979247 -0.62369883
   0.53271311  2.01219979 -0.45433448 -2.32351046 -0.91767201  1.55274339
   1.71057846  0.01200176 -0.46429133 -1.49600406 -0.31246927 -0.06726954
  -0.9013893   0.26974945  0.29416197 -0.24179931  0.41422842 -0.52004484
  -1.44635464  1.65188723]
 [-0.18353145 -0.55104577  0.29428761 -0.57932229 -1.04236798  0.42162656
   0.30276132 -0.07091252 -0.52479706 -0.37733889 -0.42789568 -0.63218267
  -0.8987925   0.33581848 -0.04890503  2.21609087 -0.50425797 -0.45175871
  -0.44395258 -0.35908747 -0.76613917  0.75933463 -1.15753487 -0.45438045
   1.16384821  1.18475358]
 [ 0.04764882  0.37243362  0.04233046 -0.25665001 -1.33267442 -0.1729575
  -1.06377457  1.19708173  1.32597736 -1.84989208  0.78496452  0.01509729
   0.60395814 -1.2451662  -1.35327731  0.74167138 -0.25843747 -0.63299711
   1.72944605  0.05691245  0.2176831   2.00986682  0.93579278 -0.94722549
  -1.18121762  0.49073337]
 [ 0.21118496  1.7891672  -0.5786749   1.78350216  0.00894534 -0.27639955
  -0.49133839 -0.95642166 -0.48738439  1.19459725 -0.02295258 -1.29660826
  -0.51455331 -0.2045945  -0.06363765 -0.03700435  1.49061627  0.2654609
   0.34343393 -1.0457306   0.42796559  0.04635478  0.26852746  0.5467218
  -1.49024623 -0.52312289]
 [ 0.54130381  0.01335286 -0.354827    0.56224927 -1.53172547 -0.11590471
  -0.08622589 -0.747697    0.13166058  0.61995272  1.2363665  -1.36381895
  -0.51287214  0.74233435 -0.57596377  0.92970182  0.36657919  0.30836344
  -0.09132989  1.0593205  -0.20242179  0.24565767 -0.45814575  0.63706626
   0.03537432 -1.31220116]
 [ 0.14181131 -0.07661625  0.35399419  0.11062848 -0.42082369  0.32408712
   0.86374875  0.32434222 -1.11059954 -0.2546389  -0.79626857 -0.46113872
  -0.53039908 -0.04570129  0.32132823  1.99570669 -0.72389703 -0.04167815
  -0.68307397 -1.70745868 -0.59247953  0.51830313 -1.27343239 -0.45227385
   0.86393122  1.38992456]
 [-0.66632993  0.69764127  0.06153643 -0.4778183   0.92785369 -1.14411763
   0.02673701  0.99126501 -0.20348837 -0.91301276 -0.64739988  1.13545324
   0.1623887  -0.15049774  0.25211276 -1.32473815  0.54670412  0.58122964
  -0.2180543   0.0488026  -0.01603773 -0.27891532  1.38787905  0.34639021
  -1.07871663  0.25975683]
 [ 0.84768946  0.48834499 -0.26265601 -0.73672681  1.14450656 -0.38314522
   0.58425948  0.79212099 -0.81778264 -0.84951031 -0.64062385 -0.21049703
   0.1257346   0.49922027  1.48103274  0.26966012  0.61829622  0.86980707
  -1.15403838  0.33689064 -2.04269513  0.21008767 -0.23937183  0.13705252
   1.4325136   0.70469871]
 [ 0.0039816   0.77858544  0.08475475 -0.71707145  0.47107223 -1.29895518
   0.03385432 -0.11572865  1.47909517 -0.61523623  0.16413304  0.33842709
  -0.61188413 -0.10229436  0.11137189 -0.55521943  0.84813678  0.56180099
  -0.57607171  0.5254534  -0.08145427  0.34074452  0.30188448  0.19654279
  -0.10637991 -0.57329589]
 [ 0.53834607 -0.74178873  0.81408593 -0.26294333  0.45604321  0.89985169
   1.42592975 -0.18348724 -0.83391612  0.8505117  -2.35727804 -0.44838774
  -0.04144046 -0.19619003  0.25575349  0.00591537 -0.36408664 -0.16886048
  -1.49566936 -1.71554432 -0.02851596 -0.11154753 -1.85121381 -0.09932359
   0.84061225  0.93297479]
 [-0.38445999  0.6403279  -0.45804041  0.09317401  0.66939658 -1.40478492
  -1.13024158  0.93049913 -0.25687496 -0.92546109  0.37194017  0.62331037
  -0.02844132  0.11602784 -0.1591745  -0.9845881   0.75335101  0.74488659
   0.74468754  0.50688977  0.54812783 -0.10767119  1.83021071  0.62065524
  -1.07035669 -0.32067099]
 [-0.42136195  0.46670038  0.05053794 -0.12568427  0.26241017 -0.85956642
  -0.02359988  0.81913521  0.77045555 -1.18702995 -0.03138381  1.0171938
  -0.85347484 -0.69403463 -0.1654902  -0.44666624 -0.20194    -0.15920766
   0.65638456  0.62075887 -0.44885331  0.67931645  1.66275738 -0.59432295
   0.78282203 -0.42293363]]

Layer 2:
Shape: (10, 16)
[[-1.6061993  -1.68365012  2.23048998 -1.65649064 -4.10687316  3.35940777
   1.40931729  2.98301316  1.15880426  3.30664953 -2.85099708 -3.71283911
  -1.2008841   0.9594661  -1.75764623 -2.6613643 ]
 [ 0.29067782 -0.63655977 -2.38371933  3.99621503  2.97846907  1.17056548
  -7.14490229 -1.69741288 -0.61730172  2.5448262   0.21778957  2.01071842
  -0.41678683  2.27127906 -1.21980123 -1.32442824]
 [-0.06947731 -0.37560557 -1.24124485 -4.00109811 -2.67178355  2.80647714
  -3.12895073 -1.65177185 -0.67095817  2.97171565 -3.22797917  3.86599326
  -0.39619202  5.02548583 -3.63557746  0.35378554]
 [-0.4076112  -0.74827024  3.94136655  2.85018315 -2.75461978 -2.21251678
  -2.63024877  2.94717053  0.58808126 -0.59469736 -1.5454016  -2.39381011
  -0.99883963  3.05575815 -1.17105902 -2.53923587]
 [-1.02263833  4.8835207  -0.59030989 -4.25628408  0.59560664 -3.77036117
  -0.06727031  1.59756667 -0.71777304 -2.30155335  2.69476801  2.69778494
   3.21688    -2.85594936  3.43491166  0.79180582]
 [ 0.97676292 -0.46914204  2.70671866  1.7842903  -2.69592038 -1.03199127
   3.73375864  0.76694319  3.66616809 -3.89329785 -2.15760467 -2.93336032
  -0.78167716 -2.29952184 -0.7989879  -2.22196812]
 [-0.51189701  3.36005919  0.13930317 -3.63506223 -3.49014353  2.624514
   0.08063502 -1.87300674  2.21699841  0.19774831 -1.48959983  1.33741361
   0.67179094 -1.16410525 -0.08544039  2.07158867]
 [ 0.11291202 -1.2397251  -1.89829899  6.67744186  3.55994832 -3.22134758
   1.54939365 -1.66474567 -1.77777248 -3.33025694  3.14557556 -2.09216709
   1.36886669 -3.02187479  2.3280548   4.29132126]
 [ 0.41837925 -1.60698821 -0.36544563  0.70340748  3.54541993  1.36169368
   1.47159553 -1.31592663 -1.49237249  1.97040241 -0.52507836 -0.19790066
  -0.64578714  2.19751905 -2.10256757 -0.40432519]
 [ 0.92432764 -1.74838425 -1.40320573 -5.41766417  5.93002658 -2.46056853
   2.73218259 -0.7204319  -3.0184432  -1.19474519  4.07087992 -0.39933271
  -0.38245829 -3.1761184   3.68335527  3.24569826]]

