Final weights: [array([[  3.9357705 ,   0.44400386,  -1.35855853],
       [  0.25167925, -16.69917315,  -4.31079527],
       [  4.02978552,   1.56881471,   0.22138723],
       [  4.82197507,  -2.02364673, -17.27220118],
       [  3.15304532, -14.62833362,   0.40456175],
       [ -1.15567078,  -8.06885758,  28.393906  ],
       [  6.37549319, -17.63197343,  -6.53151235],
       [  4.94357287,  15.21431597,   0.77611015],
       [  5.06003944,   3.55358657,  21.62669805],
       [ -5.52692889,  -5.50295018,  14.31327008]]), array([[  0.91483761,  -0.41420637,   8.79022553,   0.29475478,
        -17.06799283,  -0.24291908,   4.30613619, -15.25289218,
          1.99298276,   1.17107422,   6.15693794],
       [ -1.80774395,  -1.18274124,  22.15831084,  -0.82826217,
         -1.15788814,   0.48999131, -10.87614405,  -2.57775415,
         -3.16652492,  -6.1152116 ,  10.19226651],
       [ -4.86665644,  -4.76198547,   6.58259267,  -5.20005964,
         12.75891911,   1.82142998,  10.14872209,  -4.15163122,
          0.46594656,  -4.2565631 ,  -5.44050932],
       [  3.742162  ,   3.77445745,   1.72041656,   4.96720908,
          3.43172757,  -4.40278687,  -4.23395515, -14.78868203,
          4.78570786, -14.08584929,   3.02686463],
       [  2.07396679,   4.35260317,   7.48921989,  -1.08504389,
         -3.17611116,   3.7279883 ,  -0.14573147,   0.68473342,
        -15.94540163,  -6.93571065,  -4.46026968],
       [ -4.29715658,  -4.80040911,  18.31133054,  -7.22731568,
          5.14713378,   7.21626051,  -0.71564089,   2.82177412,
         -5.12524028,  10.47218605,  -3.88662112],
       [  6.38959106,   6.72983827,  -4.42962002,   5.24624338,
         -4.05428982, -30.58282512,  13.75284698,   4.62030915,
          5.73803876, -19.18733761,   2.94525169]]), array([[-11.42974926, -18.11142432, -18.1632849 , -14.48174394,
        -21.23511343, -13.97942672,  35.85933392,  23.22469521]])]
Final weights: [array([[ -3.7523386 , -20.35898271,  -2.63743311],
       [ -6.39842389,  -9.58392064,  -3.18355544],
       [  7.96231275,  -1.94313801, -11.05961159],
       [ -0.69754425,   2.94949522,  -0.16921944],
       [  1.9524966 ,  -1.41041574,   4.29423012],
       [-10.88762228,  23.10462096,   6.65636244],
       [ -6.03172761,   8.94696919,   8.66966328],
       [ -1.25919718, -22.6874559 ,  -7.26695301],
       [ -3.63088588, -19.8087483 , -16.39825708],
       [ -2.06109491,   5.92313245,  17.11771316]]), array([[ 6.35122408e+00,  8.57940978e-02, -7.44383440e-03,
         2.43495878e+00,  1.28008244e-01,  5.58241215e-01,
        -8.77174305e+00, -6.65368198e+00,  9.84611808e-01,
        -1.18053286e-01, -1.67950971e+00],
       [ 6.71638040e-01, -1.36718616e+00,  3.47299218e+00,
         4.00662507e+00,  2.78197392e+00, -1.97368800e+00,
         6.07321754e+00,  1.82538758e+00, -2.29678431e+00,
         1.57704237e+00, -1.42701066e+01],
       [ 3.55009273e+00, -1.72114974e+01, -9.75132855e-01,
         1.09526158e+01,  4.91006891e+00,  1.59283011e+00,
        -7.65911651e-01,  5.38316412e-01,  2.05421377e+00,
        -1.15080902e+01,  3.18061998e+00],
       [-1.05998595e+01, -4.86919405e-01, -2.43187199e-01,
        -4.60525377e+00,  5.44919003e+00,  3.55760018e+01,
        -1.43646914e+01, -8.50692475e+00,  5.14289147e-01,
         1.42934616e+01, -8.00502294e+00],
       [ 7.83605888e-01, -7.21452250e-01,  1.58213620e+01,
        -5.49779069e+00,  1.22097032e+01, -8.64300226e+00,
        -2.73918006e+00, -1.73368639e+00,  4.90786272e+00,
        -7.83511204e-01,  6.19552346e+00],
       [ 1.29644235e+00, -2.21384032e+00,  5.01207539e-01,
         5.15662748e+00, -5.66656118e-01,  2.70725984e+00,
        -1.09910584e+00, -8.97988091e-01, -3.93912616e+00,
         7.63370376e+00, -9.41136933e-01],
       [-5.46655140e+00, -1.13612923e+00, -9.08077902e+00,
        -6.07162005e+00,  9.12705191e-01, -5.34473837e+00,
         1.08542343e+01,  7.90697341e+00,  1.08980340e+01,
         9.87012093e+00,  4.19155374e+00]]), array([[  0.12658059,  18.61953896,  -5.60923151,  11.03211235,
        -22.14432413, -44.51502695,  14.7217029 ,  -6.2556598 ]])]
Final weights: [array([[  6.2946607 , -16.00488058, -19.65704147],
       [-11.0308108 ,   5.20466289, -16.43756717],
       [ -3.20106357, -13.62374162,  -4.1676801 ],
       [-11.83076803, -16.33460362,   1.27275613],
       [ -8.54174741,   7.62902685,   7.34217722],
       [ -5.17529278,  14.10891192,   3.20388151],
       [ -3.88699022,  -5.2805655 ,  10.14431375],
       [  3.65639387,  -3.61379171,  -2.86703129],
       [  9.39652181,  -4.8391354 ,  15.15279748],
       [ -1.66091124,   8.96860776, -16.20958967]]), array([[ 1.64341423e+00, -3.02749239e-01, -1.36562426e+01,
         3.65915300e-01, -6.57011866e-03, -4.02329186e+00,
        -1.01483117e+01, -1.13783285e+01,  1.90087250e+00,
         1.51657903e+01, -4.27231513e+00],
       [-1.28770985e+00,  1.39044170e+00, -2.64123451e-02,
         4.11691426e+00, -2.79758203e+00,  2.19036961e+00,
         6.17032668e+00,  1.33438609e+01, -1.75076606e+01,
         5.96784984e-01, -2.69473441e+00],
       [ 1.96335483e+00,  9.02290659e+00,  3.30088717e+00,
         2.77562552e+00,  1.47473318e+01, -1.00462396e-01,
         6.03701429e+00, -8.44039704e+00,  1.81517306e+00,
        -1.47371872e+01, -3.16451582e+00],
       [-1.45177520e+00,  3.06371979e+00, -3.72376253e+00,
        -4.06223493e+00, -2.36040001e+00, -3.89199959e-01,
        -6.84716155e+00,  3.93273219e+00, -1.42722313e+00,
         1.61595549e-01, -7.78718698e-02],
       [ 3.32429008e-01, -1.20855162e+00,  9.03860558e-03,
        -2.82603794e+00,  6.34486906e-01, -5.99457534e-01,
        -4.77946343e-01,  1.32430313e+01, -9.27831286e-01,
         2.49327955e+00,  1.45157879e+01],
       [ 3.01699987e+00,  1.29720877e+01, -1.20895942e+01,
        -1.61883793e+01,  9.18381835e+00, -8.33885213e+00,
         4.25118591e+00, -7.99587841e+00,  3.15872473e+00,
         2.88774704e+00, -1.31521687e+01],
       [ 1.55631457e+00, -2.64754869e+00, -5.38669531e-01,
        -1.40667065e+00,  2.15911112e+00,  6.74445209e-01,
        -2.84425364e+00, -1.87236491e+00,  7.21109416e-01,
         2.11249591e+00,  1.88282071e+00]]), array([[-10.35425885, -20.3717616 , -21.808956  , -20.50327089,
         13.2878809 ,  15.74869662,  30.74667637,  -3.88411945]])]
Final weights: [array([[  4.2979349 ,  -6.26665591,  -0.25503875],
       [ 13.16160398, -15.79430604, -10.62946399],
       [  6.75753338,   7.81641792,  18.09648811],
       [ -4.01868669, -11.01347846,  -0.48298159],
       [ -0.57664447, -14.49258485,   3.24135759],
       [ -2.77791027,  16.99008237,   4.33573443],
       [ -3.17154167,  -2.66652823,   6.008349  ],
       [ -3.14250869,  -9.04031558,  -7.08794018],
       [ -1.65880974,  20.14102086,  18.9027695 ],
       [  7.86585063,  -9.36292461,   8.46696312]]), array([[  2.37951329,   3.07257377, -15.33649522,  -6.47137092,
         12.19315092,   8.25834482,   7.41841929,   9.2521718 ,
          5.5417762 ,   9.69786383, -14.68367899],
       [ -5.70737748,  -6.633068  ,   3.29537216,  11.38222652,
         10.01979472,  -0.75496266,  -3.29409033,   1.77063745,
         -6.30976934,  -2.32325886,   1.41610584],
       [  2.52928324,  -2.69622176,  -9.57656823,   0.92216872,
          1.45928933,   3.2154925 ,  -0.46346709,   5.14981685,
         -1.04529592,   7.46243479,  -8.64727629],
       [ -2.26662878,   4.15439962,  -5.7819482 ,  20.44864577,
        -10.12909891,   8.5453574 ,  -0.32621849, -18.67354117,
          5.51107025,  -5.71654511,  -3.40663764],
       [  3.20506373,   7.56230101,  -9.64950174,  -2.64798129,
          7.7992031 ,   4.31032632,  -8.27484102,  -5.32446334,
         -3.58682195,  16.87380483,  -5.54283589],
       [ -4.38573272,  -3.77576032,  -1.67101593, -18.18343834,
          8.86533376,   5.32106267,  17.96638212,  -0.32592602,
         10.69940955,  17.30224545,   2.78342575],
       [ -2.25645592,  -1.64378817,  -3.09236827,   6.10842414,
          6.44417756,  -0.38918912,  -2.12979795,  -1.39892391,
         14.25158402,   3.65811019,  -5.06369932]]), array([[  0.45600413, -21.81916718,  -9.44744338, -14.48991007,
         17.5816489 ,  41.31887382, -29.80999432, -16.0656014 ]])]
