Neural Network Weights
==================================================

Layer 0:
Shape: (25, 401)
[[-1.18673829e-01  1.45644164e-02  8.14667822e-03 ...  4.51190029e-03
  -3.55840251e-03  7.90987288e-03]
 [ 1.77947901e-02  1.46263325e-02  4.88747596e-03 ...  3.48902066e-03
  -1.07335534e-02 -1.14769834e-02]
 [ 3.96249828e-02 -8.29667870e-03  6.00114672e-03 ... -4.43794360e-03
   1.24335133e-02  4.60923682e-03]
 ...
 [-1.19950370e-02 -4.67417582e-03  1.28701209e-02 ...  1.03247946e-02
   7.45195234e-03  1.54018658e-02]
 [-5.45759187e-02 -7.48722868e-03 -1.17220315e-02 ... -5.27222263e-05
   3.06418366e-03  3.91123941e-03]
 [ 1.37971673e-02 -1.13513812e-02  4.46682174e-03 ... -8.28212215e-03
  -7.55668028e-03 -2.39546506e-03]]

Layer 1:
Shape: (15, 26)
[[ 0.16075644 -0.43580619  0.03232862  0.43419166 -0.28603449 -0.0110562
   0.31454998 -0.01668387 -0.1987804  -0.17108642 -0.37975961 -0.01986648
   0.46333801 -0.53008854 -0.36767876  0.3051459  -0.10577188  0.25085037
  -0.16482628 -0.16826252 -0.16464752 -0.32122686  0.34850605 -0.14214065
  -0.29994225 -0.03260644]
 [-0.01206303  0.17527517  0.01814128 -0.15654069  0.12585855  0.03757806
  -0.11277747  0.03245978  0.0810265   0.08400355  0.14976007  0.07524267
  -0.22267485  0.17202704  0.13976443 -0.11074281  0.05319192 -0.12072783
   0.04955457  0.09549209  0.07556805  0.13706613 -0.10379046  0.04802458
   0.10265589  0.03665324]
 [ 0.14887677  0.10315323  0.10346994  0.04437734  0.09477803  0.07626221
   0.05339134  0.09040467  0.10982801  0.01855176  0.07515714  0.10171722
   0.03975833  0.10117791  0.05982472  0.06863907  0.10516848  0.06138476
   0.10070711  0.09991671  0.08129094  0.09947603  0.04229946  0.11254232
   0.07364377  0.09847901]
 [ 0.07413603  0.12937596  0.04004128 -0.06796985  0.09796392  0.05726268
  -0.03594085  0.03547812  0.09576032  0.09377118  0.09964536  0.05389178
  -0.11114786  0.15163599  0.13052305 -0.03426971  0.04179701 -0.04206457
   0.05250728  0.08985598  0.06983014  0.12117969 -0.10179076  0.07712425
   0.10388627  0.06200483]
 [-0.14418474  0.1704612  -0.07333311 -0.335329    0.12247512  0.01260474
  -0.22164391 -0.02139877  0.0790539   0.08693068  0.18047801  0.00624659
  -0.34434038  0.24071332  0.15024154 -0.23179756  0.02086199 -0.18630041
   0.04462439  0.0878377   0.06156123  0.14948607 -0.27250412  0.01504439
   0.10683078 -0.02543194]
 [ 0.2146567  -0.24081472  0.09599911  0.38241119 -0.15067086  0.00680048
   0.28462449  0.04980233 -0.06688742 -0.09430486 -0.17425082 -0.00884898
   0.47320859 -0.30200364 -0.21549823  0.32772265  0.02160643  0.24629555
  -0.03132589 -0.07501435 -0.03605239 -0.19423129  0.30652356  0.00583342
  -0.13215163  0.00892872]
 [-0.0412463   0.16589649  0.03826419 -0.11012703  0.14230406  0.04972641
  -0.10107753  0.02982393  0.09277497  0.11097324  0.1528935   0.03232176
  -0.18636434  0.2255251   0.16864227 -0.09403963  0.07767391 -0.0589483
   0.11313788  0.16208087  0.08209579  0.13924703 -0.1111141   0.03235335
   0.1086726   0.05951351]
 [ 0.23161407 -0.30236198  0.05891627  0.45832753 -0.24371459  0.00841922
   0.36459331  0.0183758  -0.1386179  -0.11686517 -0.26857468 -0.01890658
   0.6428173  -0.4862707  -0.33521747  0.40451283 -0.07458344  0.28436216
  -0.10879687 -0.13538308 -0.12474417 -0.25573263  0.37492797 -0.05667436
  -0.22971613  0.00593688]
 [ 0.10899698  0.11552298  0.05161897  0.00769518  0.12112656  0.06070355
  -0.00207015  0.07495639  0.10266273  0.09793729  0.11719911  0.0621095
  -0.07865084  0.1266115   0.10591399  0.01562422  0.08127185  0.0288348
   0.10432801  0.05788403  0.07377792  0.09636926 -0.00523339  0.10471249
   0.07661036  0.07657225]
 [-0.05542566  0.32928264  0.01496906 -0.29730471  0.22014993  0.0266175
  -0.21186746  0.04139261  0.17414136  0.14959944  0.30190805  0.05680772
  -0.38173037  0.34846774  0.28562291 -0.21397518  0.11938403 -0.15461417
   0.14732887  0.12906451  0.13359     0.2996709  -0.25697619  0.10627416
   0.21283372  0.04276094]
 [-0.11424219  0.22276737 -0.03876245 -0.21582153  0.15447008  0.02826235
  -0.20367051  0.0195588   0.08314341  0.11279569  0.20054339  0.01413943
  -0.33789136  0.23414441  0.20186132 -0.19334016  0.0438724  -0.15601015
   0.05330846  0.06508987  0.05694115  0.17850125 -0.18952902  0.04423545
   0.1045665   0.00283614]
 [ 0.12320473  0.08874015  0.06703876  0.01294388  0.11341866  0.06678658
   0.04586261  0.06746743  0.09348851  0.06719647  0.08936573  0.0710065
   0.00243898  0.10968636  0.11789734  0.02896229  0.0970807   0.02848322
   0.09282898  0.10291729  0.07710303  0.10300468  0.04895664  0.07753017
   0.07991966  0.09290763]
 [ 0.0084421   0.15404479  0.04493298 -0.10337944  0.11761041  0.03191747
  -0.06204886  0.05544526  0.11016415  0.10258905  0.12000773  0.05146708
  -0.12921184  0.17489505  0.11481909 -0.07722265  0.07740333 -0.05682911
   0.09278211  0.09704375  0.07394697  0.10961604 -0.07947572  0.06136138
   0.09446535  0.05238452]
 [ 0.26740178  0.03330389  0.15709698  0.20286836  0.07459177  0.13915751
   0.21139349  0.09729658  0.10921032  0.05239092  0.04561158  0.10250304
   0.24845485  0.04221018  0.06679347  0.16453991  0.1306809   0.1730407
   0.11172055  0.10514423  0.09760933  0.04083536  0.21450647  0.14590679
   0.06077559  0.12582749]
 [ 0.09919766 -0.1385422   0.02923815  0.12521259 -0.10928466 -0.00923202
   0.12638717 -0.01232262 -0.05557199 -0.0437382  -0.13417372  0.00288269
   0.20870544 -0.16686592 -0.11246328  0.10625982 -0.03028654  0.11057289
  -0.08723907 -0.05249752 -0.06523283 -0.12686186  0.17257455 -0.05323859
  -0.06636984 -0.00872482]]

Layer 2:
Shape: (10, 16)
[[ 1.14602169  1.82826052 -0.58392308  0.43841852  0.18726581  0.4502369
   1.62078814  0.51575888  1.73064695  0.6097432   0.08410158 -0.37605347
   0.46791621  0.29680823  1.17868311  0.61463824]
 [-0.18659853 -0.01940713 -0.13254291 -0.1537022  -0.07646052 -0.17754132
  -0.05069957 -0.16206863 -0.08941846 -0.15176823 -0.14915159 -0.121223
  -0.15933994 -0.14344586 -0.1831992  -0.09635686]
 [-0.17534136 -0.09475396 -0.15407808 -0.17065962 -0.20429804 -0.13460166
  -0.08193709 -0.16624995 -0.08568968 -0.15086036 -0.11974014 -0.12471532
  -0.16779257 -0.13918045 -0.1163374  -0.07802683]
 [-0.20029707 -0.11500193 -0.13523201 -0.14164438 -0.15501219 -0.15982
  -0.07467988 -0.15172294 -0.16812397 -0.14413421 -0.11520316 -0.10814697
  -0.07816799 -0.18773865 -0.17800722 -0.06701523]
 [-0.10403186 -0.10194401 -0.14669567 -0.12435971 -0.14104835 -0.1630061
  -0.12528204 -0.16797007 -0.09549125 -0.13417288 -0.12933236 -0.13926253
  -0.15335941 -0.15525353 -0.19042035 -0.07666791]
 [-0.19064648 -0.12780258 -0.16783241 -0.16534376 -0.13728759 -0.14713986
  -0.06779292 -0.25941863  0.05761423 -0.16825004 -0.12537732 -0.14202798
  -0.17099146 -0.14217545 -0.19326055 -0.12742429]
 [-0.61009419 -0.21541863 -0.22823591 -0.2703939  -0.25717918 -0.27105234
  -0.08702164 -0.19727986 -0.16794012 -0.27015244 -0.17858555 -0.31012038
  -0.25576001 -0.19843137 -0.29113033 -0.09931361]
 [-0.21721013 -0.12190198 -0.18264893 -0.18354171 -0.13749025 -0.16994941
  -0.08339705 -0.14828082 -0.08954656 -0.18014379 -0.13555603 -0.11809408
  -0.18406836 -0.15047161 -0.17750908 -0.07399982]
 [-0.2119903  -0.12413601 -0.14908264 -0.15899722 -0.2431102  -0.20199258
  -0.04399794 -0.17609352 -0.12091231 -0.15735135 -0.13441991 -0.1563561
  -0.14122833 -0.15140623 -0.03398152 -0.07944992]
 [ 0.42826846 -0.78975198  1.46651617  0.85450088  0.91367097  1.30896866
  -1.31411893  0.83804801 -0.94199286  0.72491658  1.15853755  1.28851812
   0.84726824  0.96497818  0.56018088  0.02658097]]

