Neural Network Weights
==================================================

Layer 0:
Shape: (25, 401)
[[ 0.14199951 -0.01065669  0.01315942 ... -0.00598158  0.01579997
   0.02377876]
 [ 0.21418149  0.00693835  0.02159199 ... -0.01860248 -0.01394396
  -0.01607784]
 [-0.12783692  0.00781497 -0.00069301 ... -0.00983508 -0.00593862
   0.00236077]
 ...
 [-0.07817214 -0.01723765 -0.00439129 ...  0.02553518  0.0075567
   0.0023472 ]
 [-0.11384465  0.01379125  0.00784448 ... -0.00916306 -0.00225554
   0.01930519]
 [-0.01390226 -0.01788459 -0.01556041 ...  0.00926236  0.01966302
  -0.02177537]]

Layer 1:
Shape: (15, 26)
[[ 1.47198556e+00  1.20689961e+00  6.08911923e-01  5.91517736e-01
   9.37079505e-01  6.14876527e-01  8.14475393e-01  9.78411005e-01
   1.25281120e+00  5.16280188e-01  1.66158844e-01  3.11553489e-02
   5.19443161e-01  8.39908372e-01  8.77981972e-03 -9.35333856e-02
   3.70702891e-01  6.67495097e-01  4.34576316e-01  1.41254650e-01
   2.52835279e-01  9.91091004e-01  8.54230081e-02  6.98667477e-01
   5.94211433e-01  7.48842079e-01]
 [ 3.85205010e-01  5.40170892e-01  2.68030001e-01  3.33840521e-01
   6.28620149e-01  2.12557696e-01  3.80584479e-01  5.28518682e-01
   2.39813595e-01  1.54917697e-01 -1.35637854e-02 -8.24688870e-02
   1.69584962e-01  3.21856149e-01 -1.19823805e-01 -2.02706179e-01
   3.80460579e-02  4.46387952e-01  1.22435016e-01 -1.17669950e-01
   2.87760932e-02  5.50038943e-01 -7.93188867e-02  2.82639742e-01
   2.42131822e-01  4.11906699e-01]
 [ 6.88199644e-01  3.26855851e-01  2.56623940e-01  2.33966331e-01
   1.76899991e-01  4.23532706e-01  2.70864758e-01  2.08798190e-01
   3.29520454e-01  2.51503680e-01  4.67801454e-01  2.49129740e-01
   2.32673761e-01  2.56563868e-01  2.66603259e-01  1.49979953e-01
   3.10401607e-01  2.24504114e-01  3.92464884e-01  3.58343210e-01
   2.63596119e-01  2.64666544e-01  2.06812833e-01  2.26507368e-01
   1.48946964e-01  2.37328272e-01]
 [ 8.52243320e-01  9.36451094e-01  6.49045719e-01  6.46132990e-01
   7.19380512e-01  6.46267463e-01  7.74947667e-01  1.01868045e+00
   6.15787852e-01  4.96587342e-01  2.42120732e-01  1.17182806e-01
   4.19554764e-01  8.96604653e-01  1.11186330e-01 -2.10447664e-02
   2.94215723e-01  6.14322278e-01  3.43053404e-01  1.74427491e-01
   4.64879101e-01  9.40114382e-01  1.12875447e-01  7.02704649e-01
   7.54688697e-01  6.53557818e-01]
 [ 1.99678223e-01  6.10316141e-02  7.94131122e-02  9.76509263e-02
  -8.25030158e-02 -1.34472627e-02  1.02448431e-01 -5.74685965e-02
   1.36168328e-01  7.20239473e-02  1.99134760e-01  1.61352126e-01
   2.65133045e-02  8.13971927e-02  1.87310668e-01  1.75210852e-01
   2.00262227e-01 -3.67116718e-02  1.80925803e-01  1.36286422e-01
   1.97976040e-01 -9.86324526e-02  9.67023719e-02 -6.84319163e-04
  -1.87114846e-02  7.26565103e-02]
 [ 1.07897270e+00  5.66777257e-01  5.55278750e-01  3.94277760e-01
   6.05930359e-02  5.03414247e-01  3.10241706e-01  1.50571849e-01
   7.33553870e-01  6.46740842e-01  8.65851799e-01  5.80508381e-01
   6.03202980e-01  9.76095363e-01  7.90463925e-01  6.86287952e-01
   9.01259735e-01  3.96861250e-01  5.93882490e-01  8.06728887e-01
   7.93077574e-01  3.48679740e-02  8.16179751e-01  4.15020217e-01
   6.99454033e-01  3.90532566e-01]
 [ 7.88540060e-01  6.00073369e-01  5.44048971e-01  6.86249520e-01
   5.16157159e-01  4.41899195e-01  3.03602108e-01  3.63151857e-01
   3.77273460e-01  2.72563790e-01  3.35751173e-01  1.81814883e-01
   2.81513370e-01  5.19993572e-01  2.34221566e-01  1.12117440e-01
   2.52732736e-01  4.27359535e-01  2.86965899e-01  2.56119762e-01
   2.33329752e-01  4.90017984e-01  2.54479693e-01  4.23903330e-01
   4.11340730e-01  4.79514363e-01]
 [ 5.95923381e-01  4.33194314e-02  2.26570456e-01  1.02275496e-01
  -2.63466460e-01  1.69821918e-01  6.98751292e-02 -2.18697069e-01
   2.10689999e-01  1.95157854e-01  4.75967090e-01  6.17006012e-01
   3.14848301e-01  1.97446443e-01  4.93784772e-01  4.74666329e-01
   4.87566281e-01  4.09237891e-02  3.73921594e-01  5.57619892e-01
   4.12079880e-01 -2.32529964e-01  8.08581620e-01  6.90954189e-02
   1.08751296e-01  6.90633982e-02]
 [ 3.48206522e-01  1.09873610e-01  2.95517509e-01  1.45166434e-01
  -1.50131651e-01 -7.30290612e-02  4.50974944e-02 -1.81530768e-01
   4.53839321e-01  2.85310197e-02  4.83586986e-01  3.36280729e-01
   1.14509788e-01  3.64784428e-01  4.66515510e-01  2.04757237e-01
   2.61696576e-01 -2.98766097e-02  3.53770807e-01  4.27484522e-01
   1.97429453e-01 -1.10427555e-01  3.60539818e-01  1.80218632e-02
  -9.32049796e-02  8.98890270e-02]
 [ 3.29069642e-01  1.89432951e-01  2.30242325e-01  1.44727887e-01
   1.65367191e-01  2.04304820e-01  3.70530621e-01  2.23901255e-01
   1.77214535e-01  2.11521187e-01  2.06809727e-01  1.52144225e-01
   2.47221475e-01  1.72932517e-01  1.31043850e-01  1.87548657e-01
   1.41929719e-01  2.12266084e-01  2.21672640e-01  1.54534353e-01
   3.27914539e-01  2.54494301e-01  9.21285638e-02  1.63699181e-01
   1.61194998e-01  2.15487536e-01]
 [ 2.27041060e-01  1.83327150e-01  1.76027267e-01  1.75465588e-01
   1.19886783e-01  3.18652136e-01  1.06439439e-01  1.04674384e-01
   3.38381226e-01  1.21827206e-01  1.24421487e-01  8.08454742e-02
   9.42989290e-02  1.17522205e-01  1.01860003e-01  6.73287023e-02
   1.73764304e-01  1.28378280e-01  2.00438446e-01  1.83721367e-01
   9.41860793e-02  8.62637237e-02  7.88400340e-02  9.34834601e-02
   1.14363525e-01  1.62304683e-01]
 [-2.41108701e-01  2.91066047e-01 -1.44256730e-01  2.05120341e-01
   1.80727346e+00 -1.86541260e-02  2.32159433e-01  9.95549409e-01
   3.77637391e-02 -1.08398852e-01 -1.03552697e+00 -9.16756458e-01
  -4.67923249e-03  2.88139474e-02 -1.14478788e+00 -1.05659716e+00
  -6.44837324e-01  2.03480429e-01 -4.34207256e-01 -1.50966797e+00
  -4.27261118e-01  1.73169095e+00 -1.00932563e+00  2.26531486e-01
   1.67288135e-01  4.29703305e-01]
 [ 1.96502189e-01  2.77805844e-01  2.96500163e-01  2.20507389e-01
   8.55992305e-02  5.33933342e-02  1.25810545e-01  2.47298977e-01
   2.81050315e-01  6.41966646e-02  1.03917588e-01  7.78116646e-02
   1.25582703e-01  9.83615031e-02  8.48654405e-02 -4.30085931e-03
   1.27662877e-01  7.93597653e-02  3.23849327e-01  7.10601049e-02
   8.25492600e-02  1.83843043e-01  1.43520718e-01  1.02210051e-01
   5.99382783e-02  1.91648923e-01]
 [ 9.78625873e-01  5.45135646e-01  4.03650950e-01  6.34074740e-01
   2.78307314e-01  4.52409884e-01  4.01096937e-01  3.12351540e-01
   4.05968514e-01  3.13555911e-01  3.16108097e-01  2.86475300e-01
   3.46043309e-01  5.01980340e-01  3.53043901e-01  3.35253083e-01
   3.35841357e-01  4.07149953e-01  2.92527972e-01  3.51135641e-01
   6.34447345e-01  2.95354086e-01  3.07149660e-01  3.88803337e-01
   3.72362684e-01  3.64286924e-01]
 [ 6.28393409e-01  5.13284631e-01  3.86395562e-01  2.63411235e-01
   5.59915028e-01  4.81929144e-01  4.10491331e-01  3.65307151e-01
   4.09583497e-01  2.60344453e-01  2.10140822e-01  1.42516054e-01
   2.43200525e-01  2.64811507e-01  9.38058219e-02  6.10627913e-02
   2.17590517e-01  3.33760033e-01  2.34617795e-01  4.11451396e-01
   1.78049581e-01  5.15730623e-01  7.62733605e-02  2.88330494e-01
   2.51664654e-01  3.16428152e-01]]

Layer 2:
Shape: (10, 16)
[[ 6.42833458  2.73050921  1.37046394  1.86627637  2.32196691  1.41406898
   2.54151082  2.61920416  1.22445     2.96619576  0.99716971  1.24471367
  -0.60938836  1.68569638  2.0766588   0.65473896]
 [-0.93329913 -1.35495833 -0.41709743 -0.55032508 -0.67170381 -0.23050908
  -1.01112235 -0.56206748 -0.27149749 -0.22986841 -0.74720124 -0.3899725
  -0.94485339 -0.25548758 -0.65146132 -0.35598494]
 [-1.5479628  -0.60495696 -0.35457567 -0.56553665 -0.54244578 -0.18968285
  -0.62467685 -0.63428332 -0.23409743 -0.20441506 -0.2486648  -0.27488654
  -0.43276441 -0.27630775 -0.48404584 -0.32302771]
 [-0.97549367 -0.85781165 -0.35744153 -0.59929356 -0.79793928 -0.22808653
  -0.71956261 -0.55441675 -0.18421575 -0.27529829 -0.35309407 -0.32868255
  -0.66080667 -0.1720975  -0.63966271 -0.30236868]
 [-0.84479886 -0.55954508 -0.2432755  -0.27538799 -0.57328498 -0.19550467
  -0.50955415 -0.46050312 -0.25466293 -0.208371   -0.21615546 -0.21223006
  -0.48742988 -0.21891263 -0.41184168 -0.48022693]
 [-0.76126016 -0.69559025 -0.34896744 -0.33629479 -0.73083732 -0.05451727
  -0.63484501 -0.69083134 -0.31527889 -0.21277318 -0.34463763 -0.23585127
  -0.57984938 -0.18953213 -0.47917092 -0.29437331]
 [-1.14874188 -0.92371573 -0.38601416 -0.60704808 -1.07575866 -0.25458175
  -0.93737664 -0.76486962 -0.36637786 -0.34263358 -0.47746433 -0.40050642
  -0.9012293  -0.3396304  -0.71986193 -0.58479586]
 [-1.01588064 -0.6240814  -0.23421876 -0.34573114 -0.4635876  -0.14740422
  -0.4504862  -0.60452442 -0.22744983 -0.21831876 -0.28105202 -0.32517244
  -0.47853547 -0.25736548 -0.5720782  -0.3378824 ]
 [-1.20260947 -0.68149106 -0.40150715 -0.29700042 -0.73200813 -0.1815763
  -0.6487264  -0.66352361 -0.26325356 -0.18899563 -0.26032285 -0.52270377
  -0.63370933 -0.22919006 -0.4411407  -0.35057298]
 [ 2.69641442  4.45386219  1.6875751   0.94775829  4.29917265  0.69644528
   2.13533541  1.69909553  1.60347753 -0.70823456  1.20528354  0.83370897
   8.72749408  0.33688563  1.86972802  2.08849184]]

