Final weights: [array([[ -0.23357722,   2.31939449,   3.84737183],
       [  5.47444283,  10.01908269,  16.22609267],
       [ -5.28343354,  -0.19998228,  -0.28308919],
       [  4.1086489 ,  -6.15897004,  -2.1029299 ],
       [ -2.51850382,  15.63778804,   4.41521329],
       [ -8.34023549,   2.35298577,  12.11993961],
       [  6.39377788,   7.30775644,  -5.41300155],
       [ -7.61961076,   9.55333819,  -1.56298011],
       [ -0.09315695,  -2.68757902,  -1.0913084 ],
       [  5.27578282, -19.78414188,   1.63022724]]), array([[  1.71499238,  -1.22587934,  -5.88339196,   0.13434031,
          3.72310062,   1.22153812,  -0.24027193,  -7.33902209,
          3.87285269,   3.77986328,   0.81864014],
       [  1.86917611,   0.90911745,  -9.28883553,  -0.62395098,
         -0.45975282,   8.29343199,   2.59494893,  -3.58092006,
          4.01609061,  -0.28079545,   0.81393362],
       [  0.252247  ,   1.2021972 ,   2.94744109,   0.98039052,
        -12.04586539,   5.13023861,   3.37495282,  -0.03143588,
          3.12191006,  -1.49103539,  -5.8367845 ],
       [  0.59262234,  -0.87308495,  -3.76391664,   0.70550708,
         -1.69563759,   2.57710518,   1.75985544,  -3.11090873,
          3.2127056 ,   1.03963521,   3.31137399],
       [ -1.62936083,   0.9069913 ,   6.58175534,   0.36191935,
         -2.11161943,  -8.24803135,  -0.08048653,   6.48609884,
         -2.28846949,  -2.78099814,   0.17444402],
       [  2.94139975,   1.97328519,   1.46998549,  -1.70857029,
         14.26275739,  -4.95363736, -13.96983409,   0.90912162,
         -9.82070633,   8.19481561,  12.48065213],
       [  2.12451682,  -0.24547786,  -2.45005974,  -0.19006795,
         -2.34575398,   3.60389715,   0.18569074,  -5.88785083,
          5.69234205,   2.82316697,   3.34103402]]), array([[-1.37615263, -3.15239609, -9.39038145,  2.05740907, -3.14999284,
         2.09091099,  4.04038087, -5.07563873]])]
Final weights: [array([[ 0.78531637, -0.38886475, -0.39433433],
       [ 0.03311249,  0.76556259,  0.17599914],
       [ 1.80797652, -0.08311883, -0.93674012],
       [-0.52868398,  0.34283588, -1.15949436],
       [-0.0476653 ,  0.34314792, -0.53703551],
       [-0.60994804,  0.14117628,  0.15157392],
       [ 0.43586623,  0.01508843,  0.21689499],
       [-0.19120103,  0.92890507, -0.56430462],
       [-0.52204407,  0.42276584, -0.57795927],
       [-1.12874494, -0.05231992, -0.48713993]]), array([[-0.19725231, -0.120434  , -0.50979506, -0.06626536, -0.12196789,
         0.00353756, -0.09087778,  0.34496929,  0.05534707, -0.52205372,
         0.05098812],
       [ 0.38539991,  0.03187186, -0.47329057,  0.24313136,  0.5620605 ,
         0.31313863, -0.05069235,  0.10537777, -0.38387452, -0.26962172,
        -0.03793305],
       [ 0.10295379, -0.18071165, -0.00460209,  0.10613476, -0.49512711,
         0.19153552, -0.30159697, -0.09372482, -0.07454443, -0.12108342,
        -0.10892556],
       [ 0.29807315,  0.05390657,  0.45388719,  0.2191297 ,  0.147601  ,
        -0.07120095,  0.90793139,  0.13150344,  0.29271344, -0.26915837,
        -0.11463861],
       [ 0.21014632, -0.15904119,  0.08926741, -0.32838117,  0.07436663,
        -0.48210796, -0.28402035,  0.26427073, -1.08649799, -0.35732874,
         0.26817726],
       [-0.24206594, -0.02627546,  0.44949423, -0.08804886,  0.2632075 ,
         0.19095114, -0.27036518, -0.19612373,  0.38155098, -0.10181623,
         0.26385648],
       [-0.21713856, -0.53031977,  0.14100089, -0.10718779,  0.22068452,
        -0.37207832, -0.15369176,  0.27987323, -0.05752477, -0.80885685,
         0.56950568]]), array([[ 0.23992205,  0.41209956, -0.18491014,  0.04618463, -0.15989154,
         0.07188337, -0.09234567, -0.02635081]])]
Final weights: [array([[-1.26461662, -3.49735046, -0.83527465],
       [ 1.40952845,  1.51487319,  3.79168859],
       [-1.29945449, -2.72533311, -0.29912826],
       [ 0.75197762, -1.51147822, -0.47078067],
       [-0.19646757,  0.95763895,  0.37910422],
       [-0.08708984,  1.20962039,  0.49159232],
       [-2.98058639, -1.24743171,  4.47661453],
       [-1.44261374,  2.06910423, -1.79487585],
       [-1.25620429,  1.2997648 , -1.76777865],
       [ 2.13994718, -3.33198166, -1.77375688]]), array([[ 4.64220152e-02, -1.11838850e+00,  1.74435691e+00,
        -8.24291046e-01, -1.32014196e-01,  3.88488063e-01,
         5.46492670e-01, -1.53913246e+00, -7.67627510e-01,
        -7.01122248e-01,  2.16276654e-01],
       [-3.84733186e-01,  2.46448479e+00, -3.75691257e+00,
         2.26703897e+00,  9.58813453e-01, -8.60558164e-01,
        -1.21108625e+00,  3.13542446e+00,  1.90854703e+00,
         1.85223655e+00, -8.68879212e-01],
       [-2.86326856e-01, -5.67152209e-01,  7.89828040e-01,
        -3.47189376e-01,  9.64529376e-02, -2.51308989e-01,
        -2.16958592e-01, -1.29486957e+00, -7.56438898e-01,
        -6.08711451e-01,  9.06542788e-01],
       [ 1.33462278e-01, -3.74927418e-02,  2.43262102e-01,
         1.36736366e-02,  1.45363133e-01,  6.10374696e-03,
         2.90430463e-02, -2.53935554e-01, -1.39253901e-01,
        -1.23256473e-01,  3.49308627e-01],
       [-1.92605831e-02, -1.95032462e-01,  3.56985947e-01,
        -1.68409935e-02,  1.16214193e-01, -6.63556129e-02,
         4.10235591e-04, -3.35400837e-01, -3.17496131e-01,
        -2.31395570e-01,  3.56356920e-01],
       [ 7.36035605e-02, -1.59704081e-02,  2.84539059e-01,
         1.50349072e-02,  1.79030633e-01,  4.50360513e-03,
         2.32719549e-02, -1.93382546e-01, -1.31730325e-01,
        -1.00157344e-01,  2.84764886e-01],
       [-7.48962195e-01,  1.38721449e-01, -5.45819102e-02,
         2.89114582e-01, -2.01889281e+00,  7.68434057e-01,
         9.98639543e-01,  4.40257121e+00,  2.38691265e+00,
         1.39828449e+00, -4.12170889e+00]]), array([[-0.04931184,  2.65240244, -6.54589811,  1.61039243,  0.57381897,
         0.774867  ,  0.49307061, -7.78848603]])]
Final weights: [array([[-0.6981569 ,  1.1364996 ,  0.69351262],
       [ 0.59341225, -1.44576072, -0.81256536],
       [-0.08953905,  0.34076692, -0.16876264],
       [ 0.43608152, -1.17021788, -0.076353  ],
       [ 0.443593  ,  0.88206989, -0.7521419 ],
       [ 0.31294575, -0.54788231,  0.73708976],
       [-0.52475111,  0.49399669, -0.35315684],
       [ 0.39738004,  0.15853803, -0.09653237],
       [-0.41386226, -0.21805962, -0.0086737 ],
       [-0.36852084,  0.07712459, -0.10634045]]), array([[ 0.09276655,  0.13409629, -0.28334977, -0.11224649, -0.25917318,
         0.29978924, -0.07635991,  0.15726723,  0.23799441, -0.46338663,
        -0.25318365],
       [-0.09696222, -0.10330196,  0.20144   , -0.2608991 , -0.18342189,
         0.3315269 ,  0.19079471,  0.06028407, -0.2344817 , -0.55799824,
         0.10455659],
       [-0.36331872,  0.1381832 , -0.04641262,  0.31858493, -0.3561384 ,
         0.01599624,  0.25350038, -0.07358456,  0.14659018,  0.14195695,
        -0.16274506],
       [ 0.13940988, -0.0142097 , -0.13494187,  0.00803905,  0.1764868 ,
         0.03469465,  0.91073576, -0.65490615, -0.10688567, -0.69116631,
        -0.43024211],
       [ 0.16185139, -0.26263901, -0.4292886 , -0.01268266,  0.3859642 ,
        -0.11253009, -0.35715205,  0.25377858, -0.26437344,  0.30084295,
        -0.33144616],
       [-0.30751771,  0.05925616,  0.09905256, -0.45301675,  0.85386156,
         0.1612893 , -0.24895766,  0.04781023, -0.37990888,  0.05364465,
        -0.42665624],
       [-0.24162672, -0.14758065, -0.16075471,  0.23825156, -0.05274932,
        -0.53932905, -0.16599575,  0.11882948, -0.18161703, -0.12415499,
        -0.4376421 ]]), array([[-0.11412379,  0.02011837,  0.11144338, -0.31384524,  0.00067405,
        -0.11972317,  0.46109401,  0.22209683]])]
