Final weights: [array([[-0.19538445,  0.46734215, -0.10398996],
       [-0.31417297,  0.73584232, -0.40552035],
       [ 0.31658624, -0.31028007,  0.52740242],
       [ 1.45851285, -0.01501875, -0.44781121],
       [ 0.79209167, -0.4566878 , -0.50017517],
       [ 0.8484941 , -0.39051903, -0.36792997],
       [ 0.09160066, -0.25963369, -0.62962066],
       [-0.0551114 ,  0.61520495, -0.47988751],
       [-0.83755135,  0.65333703, -0.11203978],
       [-0.36573335, -0.00693161, -0.38446182]]), array([[-3.35886749e-02, -3.75644249e-01,  4.44219603e-01,
         1.12027524e-01,  3.57788340e-01,  5.13497252e-01,
         4.28611757e-02, -8.51598333e-02, -1.49225026e-01,
        -2.89655103e-01,  1.22476976e-01],
       [ 3.29836181e-01, -3.39161209e-01, -2.60908171e-01,
         4.47729424e-01, -3.35209979e-01, -4.17915792e-01,
         3.32848673e-02,  2.97761001e-01,  2.61000805e-01,
        -2.63424885e-01, -3.66013237e-01],
       [-2.88320934e-02, -2.05049589e-01, -1.15185399e-01,
         1.59632408e-01, -4.86703985e-02, -1.24372700e-01,
         2.96170430e-01, -2.89588348e-01,  3.68206490e-01,
        -2.84715094e-02,  8.63246962e-02],
       [ 1.22443527e-02,  4.65836422e-01, -4.93480053e-01,
         9.98354587e-02, -8.51283511e-02, -1.93785627e-01,
        -2.00318447e-01, -1.33500432e-01, -2.46678046e-01,
         4.39849985e-02,  1.56504833e-01],
       [ 4.33591688e-01, -1.56334498e-01,  2.76828570e-01,
        -2.06877198e-01, -9.73021204e-02,  2.01381938e-01,
         2.95439843e-01,  9.30678845e-02, -8.55934583e-04,
        -1.12442861e-01, -1.79364817e-01],
       [ 2.23993153e-01, -1.51160194e-01, -3.49041075e-01,
         3.20450199e-02,  3.42142284e-01,  1.16284540e+00,
         7.51197570e-02, -3.00813610e-02, -8.43041461e-02,
         3.79731559e-01,  2.57135399e-01],
       [ 7.83839645e-01,  2.53771240e-01, -4.56925970e-01,
         2.82969370e-01,  5.52598169e-01,  4.15783843e-01,
         3.82464534e-01,  2.15416106e-02, -8.11212870e-03,
         2.83327867e-02, -2.83952402e-01]]), array([[2.8070939 , 0.6949484 , 0.58306841, 1.08889097, 0.58325881,
        0.68997637, 4.57037981, 1.62612643]])]
