Final weights: [array([[ -0.23357722,   2.31939449,   3.84737183],
       [  5.47444283,  10.01908269,  16.22609267],
       [ -5.28343354,  -0.19998228,  -0.28308919],
       [  4.1086489 ,  -6.15897004,  -2.1029299 ],
       [ -2.51850382,  15.63778804,   4.41521329],
       [ -8.34023549,   2.35298577,  12.11993961],
       [  6.39377788,   7.30775644,  -5.41300155],
       [ -7.61961076,   9.55333819,  -1.56298011],
       [ -0.09315695,  -2.68757902,  -1.0913084 ],
       [  5.27578282, -19.78414188,   1.63022724]]), array([[  1.71499238,  -1.22587934,  -5.88339196,   0.13434031,
          3.72310062,   1.22153812,  -0.24027193,  -7.33902209,
          3.87285269,   3.77986328,   0.81864014],
       [  1.86917611,   0.90911745,  -9.28883553,  -0.62395098,
         -0.45975282,   8.29343199,   2.59494893,  -3.58092006,
          4.01609061,  -0.28079545,   0.81393362],
       [  0.252247  ,   1.2021972 ,   2.94744109,   0.98039052,
        -12.04586539,   5.13023861,   3.37495282,  -0.03143588,
          3.12191006,  -1.49103539,  -5.8367845 ],
       [  0.59262234,  -0.87308495,  -3.76391664,   0.70550708,
         -1.69563759,   2.57710518,   1.75985544,  -3.11090873,
          3.2127056 ,   1.03963521,   3.31137399],
       [ -1.62936083,   0.9069913 ,   6.58175534,   0.36191935,
         -2.11161943,  -8.24803135,  -0.08048653,   6.48609884,
         -2.28846949,  -2.78099814,   0.17444402],
       [  2.94139975,   1.97328519,   1.46998549,  -1.70857029,
         14.26275739,  -4.95363736, -13.96983409,   0.90912162,
         -9.82070633,   8.19481561,  12.48065213],
       [  2.12451682,  -0.24547786,  -2.45005974,  -0.19006795,
         -2.34575398,   3.60389715,   0.18569074,  -5.88785083,
          5.69234205,   2.82316697,   3.34103402]]), array([[-1.37615263, -3.15239609, -9.39038145,  2.05740907, -3.14999284,
         2.09091099,  4.04038087, -5.07563873]])]
Final weights: [array([[ 0.85048032,  0.2037925 ,  0.33966777],
       [ 0.28621941, -0.03876524, -0.6314872 ],
       [-0.08836962,  0.21943017,  1.10533906],
       [ 0.36092131,  0.00624661, -0.06237574],
       [ 1.00483078,  0.44831728,  0.17395936],
       [ 0.17619601, -0.75461753, -0.73336534],
       [ 0.11098338,  0.52385597,  1.17351265],
       [ 0.40117267,  0.88062736, -0.4937694 ],
       [ 1.14026329,  0.70139632, -0.51112108],
       [-0.71068733,  0.01867466, -0.14194428]]), array([[-0.3545969 , -0.11939095, -0.23812175,  0.14378408,  0.01344235,
        -0.16785104, -0.21479427,  0.44087881,  0.00644197, -0.14037385,
         0.46284749],
       [ 0.00161897,  0.25969346,  0.27249534, -0.04189381,  0.15342595,
         0.16372501, -0.06771769,  0.24180885,  0.22464377,  0.34956442,
        -0.63740268],
       [ 0.06894525, -0.37107766,  0.20832471, -0.42196976, -0.31902921,
         0.16283924,  0.25538278, -0.26767148,  0.09477167,  0.29563075,
        -0.03445318],
       [ 0.38368516, -0.54359678,  0.04394236, -0.51661114, -0.43389988,
         0.08814205, -0.00972795, -0.01887254,  0.288345  ,  0.05856584,
        -0.37107243],
       [-0.28683617,  0.58742319, -0.14461784, -0.07266106,  0.3772747 ,
         0.18190968,  0.20868895, -0.17018698,  0.14153795,  0.15501956,
         0.45989077],
       [-0.00700999, -0.50710162,  0.26927795,  0.04233156, -0.01462995,
         0.09168741,  0.18748916,  0.03694711, -0.25866033, -0.05460674,
         0.17716972],
       [-0.12393607, -0.6035546 ,  0.01900472,  0.1288304 ,  0.08725635,
        -0.0070004 ,  0.16686068, -0.37353466, -0.24252827, -0.13210969,
        -0.01036331]]), array([[-0.14381253,  0.21150621,  0.62302423, -0.88219187,  0.090987  ,
         0.15138367, -0.13109213, -0.23736432]])]
